svm_type c_svc
kernel_type linear
nr_class 2
total_sv 14
rho 3.47047e+014
label 0 1065353216
nr_sv 7 7
SV
2.2974 1:1.0655718e+009 2:1.0656511e+009 3:1.0655796e+009 4:1.0640331e+009 5:1.0657695e+009 6:1.0659579e+009 7:1.0659643e+009 8:1.0593823e+009 9:-1.092181e+009 10:-1.0894242e+009 11:-1.0959788e+009 12:-1.0976708e+009 13:-1.0997612e+009 14:-1.1015014e+009 15:1.0293911e+009 
2.2974 1:1.0656477e+009 2:1.0657192e+009 3:1.0656397e+009 4:1.0641041e+009 5:1.0657299e+009 6:1.0659195e+009 7:1.0659149e+009 8:1.059346e+009 9:-1.0922884e+009 10:-1.0890807e+009 11:-1.0955478e+009 12:-1.0972149e+009 13:-1.0990166e+009 14:-1.1007959e+009 15:1.0299504e+009 
2.2974 1:1.0657135e+009 2:1.0657401e+009 3:1.0656111e+009 4:1.0641237e+009 5:1.0657497e+009 6:1.06593e+009 7:1.0659723e+009 8:1.0593671e+009 9:-1.0922028e+009 10:-1.0886419e+009 11:-1.0951061e+009 12:-1.0968787e+009 13:-1.0986759e+009 14:-1.1001758e+009 15:1.0278228e+009 
0.893433334701442 1:1.0657412e+009 2:1.0656399e+009 3:1.0655842e+009 4:1.0642443e+009 5:1.0656185e+009 6:1.065672e+009 7:1.0656941e+009 8:1.0589894e+009 9:-1.0928442e+009 10:-1.0890577e+009 11:-1.0956093e+009 12:-1.0971874e+009 13:-1.0990512e+009 14:-1.1002554e+009 15:1.0279992e+009 
2.2974 1:1.065475e+009 2:1.0654458e+009 3:1.0654522e+009 4:1.064181e+009 5:1.0656987e+009 6:1.0657784e+009 7:1.0657948e+009 8:1.0591414e+009 9:-1.0930051e+009 10:-1.0893391e+009 11:-1.0955946e+009 12:-1.0969791e+009 13:-1.0985659e+009 14:-1.0993011e+009 15:1.0172736e+009 
2.2974 1:1.0657719e+009 2:1.0657278e+009 3:1.0656682e+009 4:1.0643199e+009 5:1.0657003e+009 6:1.065784e+009 7:1.0658074e+009 8:1.058879e+009 9:-1.0923613e+009 10:-1.0898571e+009 11:-1.0966246e+009 12:-1.0980216e+009 13:-1.1004702e+009 14:-1.1016424e+009 15:1.0318941e+009 
2.2974 1:1.0660928e+009 2:1.0659421e+009 3:1.0658135e+009 4:1.0643285e+009 5:1.0657575e+009 6:1.065837e+009 7:1.0658564e+009 8:1.0586544e+009 9:-1.0916995e+009 10:-1.0904069e+009 11:-1.097888e+009 12:-1.099733e+009 13:-1.1031894e+009 14:-1.104478e+009 15:1.0386468e+009 
-2.2974 1:1.0656404e+009 2:1.0657914e+009 3:1.0656304e+009 4:1.0642715e+009 5:1.0657212e+009 6:1.0658421e+009 7:1.065959e+009 8:1.0590855e+009 9:-1.0919688e+009 10:-1.0897107e+009 11:-1.0970627e+009 12:-1.0985131e+009 13:-1.1012064e+009 14:-1.1028679e+009 15:1.0339544e+009 
-2.2974 1:1.0654916e+009 2:1.0657195e+009 3:1.0655482e+009 4:1.0641895e+009 5:1.0656823e+009 6:1.0657898e+009 7:1.0659245e+009 8:1.059203e+009 9:-1.0926511e+009 10:-1.0897103e+009 11:-1.0966988e+009 12:-1.0981235e+009 13:-1.1004067e+009 14:-1.1019031e+009 15:1.0283732e+009 
-1.021066667746202 1:1.0655896e+009 2:1.0657605e+009 3:1.0655765e+009 4:1.0642684e+009 5:1.0657826e+009 6:1.0658974e+009 7:1.0659721e+009 8:1.0590976e+009 9:-1.0919835e+009 10:-1.0894156e+009 11:-1.0966784e+009 12:-1.0981254e+009 13:-1.1003864e+009 14:-1.1020408e+009 15:1.031514e+009 
-2.2974 1:1.0655719e+009 2:1.0657949e+009 3:1.0656033e+009 4:1.064287e+009 5:1.065852e+009 6:1.0659441e+009 7:1.0660523e+009 8:1.0591299e+009 9:-1.091813e+009 10:-1.0890072e+009 11:-1.0956567e+009 12:-1.0971661e+009 13:-1.09881e+009 14:-1.1004617e+009 15:1.0274457e+009 
-2.2974 1:1.0655833e+009 2:1.0657859e+009 3:1.065615e+009 4:1.0642989e+009 5:1.0657769e+009 6:1.0658782e+009 7:1.0659705e+009 8:1.059203e+009 9:-1.0919447e+009 10:-1.088553e+009 11:-1.0953264e+009 12:-1.0969276e+009 13:-1.0986088e+009 14:-1.1000352e+009 15:1.0254247e+009 
-2.169766666953352 1:1.0655076e+009 2:1.0657275e+009 3:1.0655924e+009 4:1.0642536e+009 5:1.0657786e+009 6:1.0658904e+009 7:1.066e+009 8:1.0591833e+009 9:-1.092438e+009 10:-1.0888405e+009 11:-1.0955789e+009 12:-1.0970323e+009 13:-1.0985938e+009 14:-1.0999674e+009 15:1.0249645e+009 
-2.2974 1:1.0655946e+009 2:1.0658071e+009 3:1.0656627e+009 4:1.0642874e+009 5:1.065821e+009 6:1.0659127e+009 7:1.0660349e+009 8:1.0590375e+009 9:-1.0918311e+009 10:-1.0896765e+009 11:-1.0969782e+009 12:-1.0984365e+009 13:-1.101032e+009 14:-1.1026486e+009 15:1.0327371e+009 
