svm_type c_svc
kernel_type linear
nr_class 2
total_sv 15
rho -1.0333e+015
label 0 1065353216
nr_sv 7 8
SV
0.75786 1:-1.086032e+009 2:1.0658862e+009 3:1.0654981e+009 4:-1.0899945e+009 5:-1.0774676e+009 6:1.0659215e+009 7:-1.0786618e+009 8:-1.0811768e+009 9:-1.0818406e+009 10:-1.0793263e+009 
0.75786 1:-1.0859176e+009 2:1.0658488e+009 3:1.0654585e+009 4:-1.0898396e+009 5:-1.0774864e+009 6:1.0659122e+009 7:-1.0786834e+009 8:-1.0811869e+009 9:-1.0818194e+009 10:-1.0792933e+009 
0.75786 1:-1.0862306e+009 2:1.0658434e+009 3:1.0654579e+009 4:-1.0899265e+009 5:-1.077402e+009 6:1.0658735e+009 7:-1.078691e+009 8:-1.0812792e+009 9:-1.0819227e+009 10:-1.0793574e+009 
0.75786 1:-1.0855662e+009 2:1.0658775e+009 3:1.0655036e+009 4:-1.0894504e+009 5:-1.0775365e+009 6:1.0659552e+009 7:-1.0787282e+009 8:-1.0812507e+009 9:-1.0818476e+009 10:-1.0793046e+009 
0.75786 1:-1.0845356e+009 2:1.0658503e+009 3:1.0655725e+009 4:-1.089547e+009 5:-1.0775456e+009 6:1.0659509e+009 7:-1.078858e+009 8:-1.0812043e+009 9:-1.0818112e+009 10:-1.0792672e+009 
0.252620002090393 1:-1.0850054e+009 2:1.0658562e+009 3:1.065578e+009 4:-1.0900313e+009 5:-1.0774064e+009 6:1.0659522e+009 7:-1.0787881e+009 8:-1.081326e+009 9:-1.0819137e+009 10:-1.0793374e+009 
0.75786 1:-1.0852955e+009 2:1.0658546e+009 3:1.0655485e+009 4:-1.0906354e+009 5:-1.0774714e+009 6:1.0659636e+009 7:-1.0787481e+009 8:-1.0812232e+009 9:-1.0817946e+009 10:-1.0792788e+009 
-0.4783389783111834 1:-1.0853274e+009 2:1.0659115e+009 3:1.0656541e+009 4:-1.0884998e+009 5:-1.0775145e+009 6:1.0660115e+009 7:-1.078675e+009 8:-1.0812897e+009 9:-1.0818687e+009 10:-1.0791754e+009 
-0.7578599965840854 1:-1.085584e+009 2:1.0658504e+009 3:1.0655887e+009 4:-1.0888428e+009 5:-1.0775175e+009 6:1.0659023e+009 7:-1.0786873e+009 8:-1.0812967e+009 9:-1.0819298e+009 10:-1.0791558e+009 
-0.5052400008259445 1:-1.0861668e+009 2:1.0658828e+009 3:1.0655867e+009 4:-1.0898198e+009 5:-1.0775072e+009 6:1.0659778e+009 7:-1.0786294e+009 8:-1.0811411e+009 9:-1.0817575e+009 10:-1.07908e+009 
-0.75786 1:-1.0860468e+009 2:1.0659192e+009 3:1.065595e+009 4:-1.0899285e+009 5:-1.0776941e+009 6:1.0660797e+009 7:-1.0787179e+009 8:-1.0811918e+009 9:-1.0817947e+009 10:-1.0792489e+009 
-0.75786 1:-1.0862001e+009 2:1.0658017e+009 3:1.0654949e+009 4:-1.0902022e+009 5:-1.0775624e+009 6:1.0659786e+009 7:-1.078688e+009 8:-1.0812473e+009 9:-1.0817863e+009 10:-1.079171e+009 
-0.02690102622032998 1:-1.0856708e+009 2:1.0658217e+009 3:1.0655161e+009 4:-1.0893602e+009 5:-1.0776107e+009 6:1.0659717e+009 7:-1.0787719e+009 8:-1.0812561e+009 9:-1.0818398e+009 10:-1.0792641e+009 
-0.75786 1:-1.0860002e+009 2:1.065807e+009 3:1.0655048e+009 4:-1.0896195e+009 5:-1.0775587e+009 6:1.0659938e+009 7:-1.0787399e+009 8:-1.0813272e+009 9:-1.0819009e+009 10:-1.0792881e+009 
-0.75786 1:-1.0862879e+009 2:1.0658328e+009 3:1.065523e+009 4:-1.0903077e+009 5:-1.0775285e+009 6:1.0659808e+009 7:-1.0787168e+009 8:-1.0811983e+009 9:-1.0817961e+009 10:-1.0792409e+009 
