svm_type nu_svc
kernel_type linear
nr_class 2
total_sv 36
rho -3094.33
label 0 1065353216
nr_sv 18 18
SV
1.212659603116823e-012 1:1.0659233e+009 2:1.0656101e+009 3:-1.0864594e+009 4:1.0659321e+009 5:-1.0809509e+009 6:-1.0786484e+009 7:-1.077453e+009 8:-1.0795698e+009 
1.212659603116823e-012 1:1.0659494e+009 2:1.0656334e+009 3:-1.0865901e+009 4:1.0659827e+009 5:-1.0810245e+009 6:-1.0786572e+009 7:-1.0774116e+009 8:-1.0796187e+009 
1.212659603116823e-012 1:1.0658801e+009 2:1.0655756e+009 3:-1.0863103e+009 4:1.0659202e+009 5:-1.080983e+009 6:-1.0786701e+009 7:-1.0774718e+009 8:-1.0795771e+009 
1.212659603116823e-012 1:1.0659701e+009 2:1.0656558e+009 3:-1.0857357e+009 4:1.0660034e+009 5:-1.0809878e+009 6:-1.0786909e+009 7:-1.0775639e+009 8:-1.0795628e+009 
1.212659603116823e-012 1:1.0659925e+009 2:1.0656338e+009 3:-1.0854823e+009 4:1.0660241e+009 5:-1.0811571e+009 6:-1.0787493e+009 7:-1.077334e+009 8:-1.0796434e+009 
1.212659603116823e-012 1:1.0659254e+009 2:1.0655659e+009 3:-1.0857414e+009 4:1.0660329e+009 5:-1.0809956e+009 6:-1.0787372e+009 7:-1.0774301e+009 8:-1.0796136e+009 
1.212659603116823e-012 1:1.065933e+009 2:1.0655541e+009 3:-1.0855945e+009 4:1.0659255e+009 5:-1.0810611e+009 6:-1.0787644e+009 7:-1.0774273e+009 8:-1.0795568e+009 
1.212659603116823e-012 1:1.065961e+009 2:1.0655804e+009 3:-1.0856019e+009 4:1.0660424e+009 5:-1.0810104e+009 6:-1.0786966e+009 7:-1.0775131e+009 8:-1.0795609e+009 
1.212659603116823e-012 1:1.06591e+009 2:1.0655608e+009 3:-1.0857686e+009 4:1.0659151e+009 5:-1.0810035e+009 6:-1.0787805e+009 7:-1.0774601e+009 8:-1.0795237e+009 
1.212659603116823e-012 1:1.0658334e+009 2:1.065477e+009 3:-1.0860462e+009 4:1.0658817e+009 5:-1.0809945e+009 6:-1.0787107e+009 7:-1.0773291e+009 8:-1.079531e+009 
1.212659603116823e-012 1:1.0659378e+009 2:1.0655576e+009 3:-1.0862195e+009 4:1.0659757e+009 5:-1.0810593e+009 6:-1.078668e+009 7:-1.077382e+009 8:-1.0795329e+009 
1.212659603116823e-012 1:1.0658942e+009 2:1.0655225e+009 3:-1.0861858e+009 4:1.0659627e+009 5:-1.0809675e+009 6:-1.0786853e+009 7:-1.0772954e+009 8:-1.079502e+009 
1.212659603116823e-012 1:1.0659051e+009 2:1.0655376e+009 3:-1.0859399e+009 4:1.065966e+009 5:-1.0809927e+009 6:-1.0786996e+009 7:-1.077433e+009 8:-1.0795026e+009 
1.212659603116823e-012 1:1.0659539e+009 2:1.0655806e+009 3:-1.0858293e+009 4:1.0659874e+009 5:-1.0810065e+009 6:-1.078735e+009 7:-1.0774571e+009 8:-1.079552e+009 
1.212659603116823e-012 1:1.0659144e+009 2:1.0655339e+009 3:-1.0861811e+009 4:1.0659645e+009 5:-1.0810234e+009 6:-1.0786971e+009 7:-1.0774231e+009 8:-1.0795612e+009 
1.212659603116823e-012 1:1.065934e+009 2:1.0655414e+009 3:-1.0861198e+009 4:1.0659666e+009 5:-1.0810074e+009 6:-1.0787025e+009 7:-1.0774523e+009 8:-1.0794935e+009 
1.212659603116823e-012 1:1.0658948e+009 2:1.0655342e+009 3:-1.0861496e+009 4:1.065943e+009 5:-1.0809751e+009 6:-1.0787028e+009 7:-1.0774242e+009 8:-1.0794897e+009 
9.094947023376169e-013 1:1.0659727e+009 2:1.0655984e+009 3:-1.0859634e+009 4:1.0660293e+009 5:-1.081003e+009 6:-1.0787167e+009 7:-1.0775189e+009 8:-1.0795996e+009 
-1.212659603116823e-012 1:1.0659435e+009 2:1.0657391e+009 3:-1.0856223e+009 4:1.0660174e+009 5:-1.0810682e+009 6:-1.0786639e+009 7:-1.0775023e+009 8:-1.0794685e+009 
-1.212659603116823e-012 1:1.0658579e+009 2:1.0656583e+009 3:-1.0856707e+009 4:1.0659314e+009 5:-1.081048e+009 6:-1.0786581e+009 7:-1.0774839e+009 8:-1.0793756e+009 
-1.212659603116823e-012 1:1.0658651e+009 2:1.06566e+009 3:-1.0855104e+009 4:1.0659705e+009 5:-1.0809729e+009 6:-1.0786534e+009 7:-1.0775519e+009 8:-1.0794078e+009 
-1.212659603116823e-012 1:1.0659154e+009 2:1.0657082e+009 3:-1.0855793e+009 4:1.065988e+009 5:-1.0809641e+009 6:-1.0787212e+009 7:-1.0775794e+009 8:-1.0793892e+009 
-1.212659603116823e-012 1:1.0659477e+009 2:1.0657401e+009 3:-1.0857911e+009 4:1.0659901e+009 5:-1.0809746e+009 6:-1.0786572e+009 7:-1.0774993e+009 8:-1.0794151e+009 
-1.212659603116823e-012 1:1.0658314e+009 2:1.0656602e+009 3:-1.0861816e+009 4:1.0659072e+009 5:-1.0810865e+009 6:-1.0786211e+009 7:-1.0774041e+009 8:-1.0794442e+009 
-1.212659603116823e-012 1:1.065878e+009 2:1.0656777e+009 3:-1.0859139e+009 4:1.0659107e+009 5:-1.0810369e+009 6:-1.0786764e+009 7:-1.0775054e+009 8:-1.079437e+009 
-1.212659603116823e-012 1:1.0654621e+009 2:1.0652757e+009 3:-1.0867993e+009 4:1.0655521e+009 5:-1.0812308e+009 6:-1.0784973e+009 7:-1.0771711e+009 8:-1.0794154e+009 
-1.212659603116823e-012 1:1.0658423e+009 2:1.0655973e+009 3:-1.0857735e+009 4:1.0659881e+009 5:-1.0810889e+009 6:-1.0787779e+009 7:-1.0776097e+009 8:-1.0795778e+009 
-1.212659603116823e-012 1:1.065812e+009 2:1.0656249e+009 3:-1.086107e+009 4:1.0659616e+009 5:-1.0811212e+009 6:-1.0787223e+009 7:-1.0774439e+009 8:-1.0794558e+009 
-1.212659603116823e-012 1:1.0658768e+009 2:1.0656967e+009 3:-1.0860183e+009 4:1.0659571e+009 5:-1.0810671e+009 6:-1.078664e+009 7:-1.0774573e+009 8:-1.0794772e+009 
-9.094947023376169e-013 1:1.0658278e+009 2:1.0655971e+009 3:-1.0870824e+009 4:1.0659745e+009 5:-1.0810384e+009 6:-1.0787261e+009 7:-1.0774625e+009 8:-1.0795233e+009 
-1.212659603116823e-012 1:1.0659153e+009 2:1.0656798e+009 3:-1.0865982e+009 4:1.065989e+009 5:-1.080902e+009 6:-1.0786176e+009 7:-1.0774942e+009 8:-1.0793183e+009 
-1.212659603116823e-012 1:1.0658358e+009 2:1.0655924e+009 3:-1.0866352e+009 4:1.0659873e+009 5:-1.0810373e+009 6:-1.0786746e+009 7:-1.0775479e+009 8:-1.0794195e+009 
-1.212659603116823e-012 1:1.0659361e+009 2:1.0656866e+009 3:-1.0866327e+009 4:1.0660862e+009 5:-1.0810002e+009 6:-1.0787274e+009 7:-1.0775844e+009 8:-1.0794815e+009 
-1.212659603116823e-012 1:1.0659141e+009 2:1.0656955e+009 3:-1.0864755e+009 4:1.0661094e+009 5:-1.081037e+009 6:-1.0787934e+009 7:-1.0775736e+009 8:-1.0795335e+009 
-1.212659603116823e-012 1:1.0658561e+009 2:1.0656143e+009 3:-1.0860106e+009 4:1.0659774e+009 5:-1.0810341e+009 6:-1.078759e+009 7:-1.0775966e+009 8:-1.0794983e+009 
-1.212659603116823e-012 1:1.0658417e+009 2:1.0656027e+009 3:-1.0869209e+009 4:1.0659663e+009 5:-1.0809598e+009 6:-1.0786736e+009 7:-1.0775881e+009 8:-1.0794513e+009 
